digraph Tree {
node [shape=box, style="filled, rounded", color="black", fontname=helvetica] ;
edge [fontname=helvetica] ;
0 [label="alcohol <= 12.79\ngini = 0.657\nsamples = 142\nvalue = [45, 58, 39]\nclass = class_1", fillcolor="#e4fcee"] ;
1 [label="malic_acid <= 2.275\ngini = 0.278\nsamples = 60\nvalue = [0, 50, 10]\nclass = class_1", fillcolor="#61ea9a"] ;
0 -> 1 [labeldistance=2.5, labelangle=45, headlabel="True"] ;
2 [label="alcohol <= 12.49\ngini = 0.095\nsamples = 40\nvalue = [0, 38, 2]\nclass = class_1", fillcolor="#43e688"] ;
1 -> 2 ;
3 [label="gini = 0.0\nsamples = 32\nvalue = [0, 32, 0]\nclass = class_1", fillcolor="#39e581"] ;
2 -> 3 ;
4 [label="alcohol <= 12.59\ngini = 0.375\nsamples = 8\nvalue = [0, 6, 2]\nclass = class_1", fillcolor="#7beeab"] ;
2 -> 4 ;
5 [label="malic_acid <= 1.51\ngini = 0.444\nsamples = 3\nvalue = [0, 1, 2]\nclass = class_2", fillcolor="#c09cf2"] ;
4 -> 5 ;
6 [label="gini = 0.0\nsamples = 2\nvalue = [0, 0, 2]\nclass = class_2", fillcolor="#8139e5"] ;
5 -> 6 ;
7 [label="gini = 0.0\nsamples = 1\nvalue = [0, 1, 0]\nclass = class_1", fillcolor="#39e581"] ;
5 -> 7 ;
8 [label="gini = 0.0\nsamples = 5\nvalue = [0, 5, 0]\nclass = class_1", fillcolor="#39e581"] ;
4 -> 8 ;
9 [label="alcohol <= 12.12\ngini = 0.48\nsamples = 20\nvalue = [0, 12, 8]\nclass = class_1", fillcolor="#bdf6d5"] ;
1 -> 9 ;
10 [label="gini = 0.0\nsamples = 5\nvalue = [0, 5, 0]\nclass = class_1", fillcolor="#39e581"] ;
9 -> 10 ;
11 [label="alcohol <= 12.27\ngini = 0.498\nsamples = 15\nvalue = [0, 7, 8]\nclass = class_2", fillcolor="#efe6fc"] ;
9 -> 11 ;
12 [label="gini = 0.0\nsamples = 3\nvalue = [0, 0, 3]\nclass = class_2", fillcolor="#8139e5"] ;
11 -> 12 ;
13 [label="alcohol <= 12.435\ngini = 0.486\nsamples = 12\nvalue = [0, 7, 5]\nclass = class_1", fillcolor="#c6f8db"] ;
11 -> 13 ;
14 [label="gini = 0.0\nsamples = 4\nvalue = [0, 4, 0]\nclass = class_1", fillcolor="#39e581"] ;
13 -> 14 ;
15 [label="alcohol <= 12.485\ngini = 0.469\nsamples = 8\nvalue = [0, 3, 5]\nclass = class_2", fillcolor="#cdb0f5"] ;
13 -> 15 ;
16 [label="gini = 0.0\nsamples = 1\nvalue = [0, 0, 1]\nclass = class_2", fillcolor="#8139e5"] ;
15 -> 16 ;
17 [label="alcohol <= 12.525\ngini = 0.49\nsamples = 7\nvalue = [0, 3, 4]\nclass = class_2", fillcolor="#e0cef8"] ;
15 -> 17 ;
18 [label="gini = 0.0\nsamples = 1\nvalue = [0, 1, 0]\nclass = class_1", fillcolor="#39e581"] ;
17 -> 18 ;
19 [label="malic_acid <= 2.945\ngini = 0.444\nsamples = 6\nvalue = [0, 2, 4]\nclass = class_2", fillcolor="#c09cf2"] ;
17 -> 19 ;
20 [label="gini = 0.0\nsamples = 2\nvalue = [0, 0, 2]\nclass = class_2", fillcolor="#8139e5"] ;
19 -> 20 ;
21 [label="alcohol <= 12.615\ngini = 0.5\nsamples = 4\nvalue = [0, 2, 2]\nclass = class_1", fillcolor="#ffffff"] ;
19 -> 21 ;
22 [label="gini = 0.0\nsamples = 1\nvalue = [0, 0, 1]\nclass = class_2", fillcolor="#8139e5"] ;
21 -> 22 ;
23 [label="alcohol <= 12.735\ngini = 0.444\nsamples = 3\nvalue = [0, 2, 1]\nclass = class_1", fillcolor="#9cf2c0"] ;
21 -> 23 ;
24 [label="malic_acid <= 3.71\ngini = 0.5\nsamples = 2\nvalue = [0, 1, 1]\nclass = class_1", fillcolor="#ffffff"] ;
23 -> 24 ;
25 [label="gini = 0.0\nsamples = 1\nvalue = [0, 0, 1]\nclass = class_2", fillcolor="#8139e5"] ;
24 -> 25 ;
26 [label="gini = 0.0\nsamples = 1\nvalue = [0, 1, 0]\nclass = class_1", fillcolor="#39e581"] ;
24 -> 26 ;
27 [label="gini = 0.0\nsamples = 1\nvalue = [0, 1, 0]\nclass = class_1", fillcolor="#39e581"] ;
23 -> 27 ;
28 [label="malic_acid <= 2.235\ngini = 0.564\nsamples = 82\nvalue = [45, 8, 29]\nclass = class_0", fillcolor="#f7d9c3"] ;
0 -> 28 [labeldistance=2.5, labelangle=-45, headlabel="False"] ;
29 [label="malic_acid <= 1.3\ngini = 0.269\nsamples = 45\nvalue = [38, 6, 1]\nclass = class_0", fillcolor="#ea985d"] ;
28 -> 29 ;
30 [label="gini = 0.0\nsamples = 4\nvalue = [0, 4, 0]\nclass = class_1", fillcolor="#39e581"] ;
29 -> 30 ;
31 [label="malic_acid <= 1.69\ngini = 0.138\nsamples = 41\nvalue = [38, 2, 1]\nclass = class_0", fillcolor="#e78b48"] ;
29 -> 31 ;
32 [label="malic_acid <= 1.675\ngini = 0.32\nsamples = 16\nvalue = [13, 2, 1]\nclass = class_0", fillcolor="#eb9c63"] ;
31 -> 32 ;
33 [label="malic_acid <= 1.655\ngini = 0.231\nsamples = 15\nvalue = [13, 2, 0]\nclass = class_0", fillcolor="#e99457"] ;
32 -> 33 ;
34 [label="alcohol <= 13.845\ngini = 0.142\nsamples = 13\nvalue = [12, 1, 0]\nclass = class_0", fillcolor="#e78c49"] ;
33 -> 34 ;
35 [label="gini = 0.0\nsamples = 8\nvalue = [8, 0, 0]\nclass = class_0", fillcolor="#e58139"] ;
34 -> 35 ;
36 [label="alcohol <= 13.96\ngini = 0.32\nsamples = 5\nvalue = [4, 1, 0]\nclass = class_0", fillcolor="#eca06a"] ;
34 -> 36 ;
37 [label="malic_acid <= 1.43\ngini = 0.5\nsamples = 2\nvalue = [1, 1, 0]\nclass = class_0", fillcolor="#ffffff"] ;
36 -> 37 ;
38 [label="gini = 0.0\nsamples = 1\nvalue = [1, 0, 0]\nclass = class_0", fillcolor="#e58139"] ;
37 -> 38 ;
39 [label="gini = 0.0\nsamples = 1\nvalue = [0, 1, 0]\nclass = class_1", fillcolor="#39e581"] ;
37 -> 39 ;
40 [label="gini = 0.0\nsamples = 3\nvalue = [3, 0, 0]\nclass = class_0", fillcolor="#e58139"] ;
36 -> 40 ;
41 [label="malic_acid <= 1.665\ngini = 0.5\nsamples = 2\nvalue = [1, 1, 0]\nclass = class_0", fillcolor="#ffffff"] ;
33 -> 41 ;
42 [label="gini = 0.0\nsamples = 1\nvalue = [0, 1, 0]\nclass = class_1", fillcolor="#39e581"] ;
41 -> 42 ;
43 [label="gini = 0.0\nsamples = 1\nvalue = [1, 0, 0]\nclass = class_0", fillcolor="#e58139"] ;
41 -> 43 ;
44 [label="gini = 0.0\nsamples = 1\nvalue = [0, 0, 1]\nclass = class_2", fillcolor="#8139e5"] ;
32 -> 44 ;
45 [label="gini = 0.0\nsamples = 25\nvalue = [25, 0, 0]\nclass = class_0", fillcolor="#e58139"] ;
31 -> 45 ;
46 [label="alcohol <= 14.185\ngini = 0.389\nsamples = 37\nvalue = [7, 2, 28]\nclass = class_2", fillcolor="#a774ed"] ;
28 -> 46 ;
47 [label="malic_acid <= 5.725\ngini = 0.304\nsamples = 34\nvalue = [4, 2, 28]\nclass = class_2", fillcolor="#9a61ea"] ;
46 -> 47 ;
48 [label="alcohol <= 13.43\ngini = 0.264\nsamples = 33\nvalue = [4, 1, 28]\nclass = class_2", fillcolor="#975be9"] ;
47 -> 48 ;
49 [label="alcohol <= 13.405\ngini = 0.381\nsamples = 21\nvalue = [4, 1, 16]\nclass = class_2", fillcolor="#a673ed"] ;
48 -> 49 ;
50 [label="malic_acid <= 3.685\ngini = 0.335\nsamples = 20\nvalue = [3, 1, 16]\nclass = class_2", fillcolor="#9f68eb"] ;
49 -> 50 ;
51 [label="malic_acid <= 2.46\ngini = 0.153\nsamples = 12\nvalue = [1, 0, 11]\nclass = class_2", fillcolor="#8c4be7"] ;
50 -> 51 ;
52 [label="malic_acid <= 2.335\ngini = 0.5\nsamples = 2\nvalue = [1, 0, 1]\nclass = class_0", fillcolor="#ffffff"] ;
51 -> 52 ;
53 [label="gini = 0.0\nsamples = 1\nvalue = [0, 0, 1]\nclass = class_2", fillcolor="#8139e5"] ;
52 -> 53 ;
54 [label="gini = 0.0\nsamples = 1\nvalue = [1, 0, 0]\nclass = class_0", fillcolor="#e58139"] ;
52 -> 54 ;
55 [label="gini = 0.0\nsamples = 10\nvalue = [0, 0, 10]\nclass = class_2", fillcolor="#8139e5"] ;
51 -> 55 ;
56 [label="malic_acid <= 3.88\ngini = 0.531\nsamples = 8\nvalue = [2, 1, 5]\nclass = class_2", fillcolor="#c09cf2"] ;
50 -> 56 ;
57 [label="malic_acid <= 3.83\ngini = 0.5\nsamples = 2\nvalue = [1, 1, 0]\nclass = class_0", fillcolor="#ffffff"] ;
56 -> 57 ;
58 [label="gini = 0.0\nsamples = 1\nvalue = [1, 0, 0]\nclass = class_0", fillcolor="#e58139"] ;
57 -> 58 ;
59 [label="gini = 0.0\nsamples = 1\nvalue = [0, 1, 0]\nclass = class_1", fillcolor="#39e581"] ;
57 -> 59 ;
60 [label="malic_acid <= 4.13\ngini = 0.278\nsamples = 6\nvalue = [1, 0, 5]\nclass = class_2", fillcolor="#9a61ea"] ;
56 -> 60 ;
61 [label="malic_acid <= 3.945\ngini = 0.444\nsamples = 3\nvalue = [1, 0, 2]\nclass = class_2", fillcolor="#c09cf2"] ;
60 -> 61 ;
62 [label="gini = 0.0\nsamples = 2\nvalue = [0, 0, 2]\nclass = class_2", fillcolor="#8139e5"] ;
61 -> 62 ;
63 [label="gini = 0.0\nsamples = 1\nvalue = [1, 0, 0]\nclass = class_0", fillcolor="#e58139"] ;
61 -> 63 ;
64 [label="gini = 0.0\nsamples = 3\nvalue = [0, 0, 3]\nclass = class_2", fillcolor="#8139e5"] ;
60 -> 64 ;
65 [label="gini = 0.0\nsamples = 1\nvalue = [1, 0, 0]\nclass = class_0", fillcolor="#e58139"] ;
49 -> 65 ;
66 [label="gini = 0.0\nsamples = 12\nvalue = [0, 0, 12]\nclass = class_2", fillcolor="#8139e5"] ;
48 -> 66 ;
67 [label="gini = 0.0\nsamples = 1\nvalue = [0, 1, 0]\nclass = class_1", fillcolor="#39e581"] ;
47 -> 67 ;
68 [label="gini = 0.0\nsamples = 3\nvalue = [3, 0, 0]\nclass = class_0", fillcolor="#e58139"] ;
46 -> 68 ;
}